<?xml version="1.0"?>
<opencv_storage>
<cascade>
  <stageType>BOOST</stageType>
  <featureType>HAAR</featureType>
  <height>24</height>
  <width>24</width>
  <stageParams>
    <boostType>GAB</boostType>
    <minHitRate>9.9500000476837158e-01</minHitRate>
    <maxFalseAlarm>5.0000000000000000e-01</maxFalseAlarm>
    <weightTrimRate>9.4999999999999996e-01</weightTrimRate>
    <maxDepth>1</maxDepth>
    <maxWeakCount>100</maxWeakCount></stageParams>
  <featureParams>
    <maxCatCount>0</maxCatCount>
    <featSize>1</featSize>
    <mode>BASIC</mode></featureParams>
  <stageNum>15</stageNum>
  <stages>
    <!-- stage 0 -->
    <_>
      <maxWeakCount>3</maxWeakCount>
      <stageThreshold>-1.3576379418373108e-01</stageThreshold>
      <weakClassifiers>
        <_>
          <internalNodes>
            0 -1 12 -3.8905732799321413e-03</internalNodes>
          <leafValues>
            9.3750000000000000e-01 -4.4117647409439087e-01</leafValues></_>
        <_>
          <internalNodes>
            0 -1 7 -3.1062357127666473e-02</internalNodes>
          <leafValues>
            8.7278062105178833e-01 -4.1569650173187256e-01</leafValues></_>
        <_>
          <internalNodes>
            0 -1 2 1.0180884273722768e-03</internalNodes>
          <leafValues>
            -5.5654859542846680e-01 7.2110915184020996e-01</leafValues></_></weakClassifiers></_>
    <!-- stage 1 -->
    <_>
      <maxWeakCount>3</maxWeakCount>
      <stageThreshold>-2.9371926188468933e-01</stageThreshold>
      <weakClassifiers>
        <_>
          <internalNodes>
            0 -1 32 -1.7580571584403515e-03</internalNodes>
          <leafValues>
            7.7142858505249023e-01 -4.1538462042808533e-01</leafValues></_>
        <_>
          <internalNodes>
            0 -1 34 1.1326152831315994e-02</internalNodes>
          <leafValues>
            -4.5015978813171387e-01 8.3480018377304077e-01</leafValues></_>
        <_>
          <internalNodes>
            0 -1 13 -8.4715038537979126e-03</internalNodes>
          <leafValues>
            -6.0222214460372925e-01 5.7182514667510986e-01</leafValues></_></weakClassifiers></_>
    <!-- stage 2 -->
    <_>
      <maxWeakCount>2</maxWeakCount>
      <stageThreshold>-2.0772938430309296e-01</stageThreshold>
      <weakClassifiers>
        <_>
          <internalNodes>
            0 -1 16 6.8618446588516235e-02</internalNodes>
          <leafValues>
            -6.3636362552642822e-01 5.0000000000000000e-01</leafValues></_>
        <_>
          <internalNodes>
            0 -1 30 -1.1913895141333342e-03</internalNodes>
          <leafValues>
            5.4868125915527344e-01 -7.0772939920425415e-01</leafValues></_></weakClassifiers></_>
    <!-- stage 3 -->
    <_>
      <maxWeakCount>4</maxWeakCount>
      <stageThreshold>-5.2442651987075806e-01</stageThreshold>
      <weakClassifiers>
        <_>
          <internalNodes>
            0 -1 19 -4.1179331019520760e-03</internalNodes>
          <leafValues>
            7.5757575035095215e-01 -3.7313431501388550e-01</leafValues></_>
        <_>
          <internalNodes>
            0 -1 33 -4.0964004583656788e-03</internalNodes>
          <leafValues>
            9.4082581996917725e-01 -2.9510205984115601e-01</leafValues></_>
        <_>
          <internalNodes>
            0 -1 17 2.8425525873899460e-02</internalNodes>
          <leafValues>
            -4.5786654949188232e-01 7.8277140855789185e-01</leafValues></_>
        <_>
          <internalNodes>
            0 -1 10 -3.3948775380849838e-03</internalNodes>
          <leafValues>
            6.1697429418563843e-01 -5.2903366088867188e-01</leafValues></_></weakClassifiers></_>
    <!-- stage 4 -->
    <_>
      <maxWeakCount>3</maxWeakCount>
      <stageThreshold>-3.0584853887557983e-01</stageThreshold>
      <weakClassifiers>
        <_>
          <internalNodes>
            0 -1 36 5.5984836071729660e-03</internalNodes>
          <leafValues>
            -4.8275861144065857e-01 6.6666668653488159e-01</leafValues></_>
        <_>
          <internalNodes>
            0 -1 14 -1.0866364464163780e-03</internalNodes>
          <leafValues>
            8.0310332775115967e-01 -4.5122507214546204e-01</leafValues></_>
        <_>
          <internalNodes>
            0 -1 15 1.0525199584662914e-02</internalNodes>
          <leafValues>
            -5.2129012346267700e-01 7.2932285070419312e-01</leafValues></_></weakClassifiers></_>
    <!-- stage 5 -->
    <_>
      <maxWeakCount>4</maxWeakCount>
      <stageThreshold>-2.7385052293539047e-02</stageThreshold>
      <weakClassifiers>
        <_>
          <internalNodes>
            0 -1 9 -3.9315241156145930e-04</internalNodes>
          <leafValues>
            8.6206895112991333e-01 -3.5211268067359924e-01</leafValues></_>
        <_>
          <internalNodes>
            0 -1 44 1.1048230808228254e-03</internalNodes>
          <leafValues>
            -2.9287722706794739e-01 9.4175344705581665e-01</leafValues></_>
        <_>
          <internalNodes>
            0 -1 47 4.6942316112108529e-04</internalNodes>
          <leafValues>
            -2.9138413071632385e-01 9.4848626852035522e-01</leafValues></_>
        <_>
          <internalNodes>
            0 -1 8 -4.5805680565536022e-04</internalNodes>
          <leafValues>
            9.0898895263671875e-01 -2.9644691944122314e-01</leafValues></_></weakClassifiers></_>
    <!-- stage 6 -->
    <_>
      <maxWeakCount>4</maxWeakCount>
      <stageThreshold>-6.2302958965301514e-01</stageThreshold>
      <weakClassifiers>
        <_>
          <internalNodes>
            0 -1 31 -2.0880661904811859e-03</internalNodes>
          <leafValues>
            6.9230771064758301e-01 -4.4262295961380005e-01</leafValues></_>
        <_>
          <internalNodes>
            0 -1 41 3.5892979940399528e-04</internalNodes>
          <leafValues>
            -4.8501509428024292e-01 6.5896821022033691e-01</leafValues></_>
        <_>
          <internalNodes>
            0 -1 43 2.1340765524655581e-03</internalNodes>
          <leafValues>
            -3.4377950429916382e-01 9.2154830694198608e-01</leafValues></_>
        <_>
          <internalNodes>
            0 -1 48 -2.8312182985246181e-04</internalNodes>
          <leafValues>
            7.6557630300521851e-01 -4.8654267191886902e-01</leafValues></_></weakClassifiers></_>
    <!-- stage 7 -->
    <_>
      <maxWeakCount>3</maxWeakCount>
      <stageThreshold>-1.8000897765159607e-01</stageThreshold>
      <weakClassifiers>
        <_>
          <internalNodes>
            0 -1 22 -2.8628255240619183e-03</internalNodes>
          <leafValues>
            7.2222220897674561e-01 -4.0625000000000000e-01</leafValues></_>
        <_>
          <internalNodes>
            0 -1 1 9.2946625954937190e-05</internalNodes>
          <leafValues>
            -4.8594883084297180e-01 7.4038714170455933e-01</leafValues></_>
        <_>
          <internalNodes>
            0 -1 39 1.1456068605184555e-03</internalNodes>
          <leafValues>
            -4.1628235578536987e-01 8.3458429574966431e-01</leafValues></_></weakClassifiers></_>
    <!-- stage 8 -->
    <_>
      <maxWeakCount>4</maxWeakCount>
      <stageThreshold>8.1142224371433258e-02</stageThreshold>
      <weakClassifiers>
        <_>
          <internalNodes>
            0 -1 0 6.5135911107063293e-02</internalNodes>
          <leafValues>
            -3.4285715222358704e-01 8.0000001192092896e-01</leafValues></_>
        <_>
          <internalNodes>
            0 -1 29 -2.8925607330165803e-04</internalNodes>
          <leafValues>
            -6.2141460180282593e-01 5.5937170982360840e-01</leafValues></_>
        <_>
          <internalNodes>
            0 -1 27 6.2809174414724112e-04</internalNodes>
          <leafValues>
            5.2199685573577881e-01 -6.3873785734176636e-01</leafValues></_>
        <_>
          <internalNodes>
            0 -1 6 -1.5301603125408292e-03</internalNodes>
          <leafValues>
            5.6406950950622559e-01 -6.1944001913070679e-01</leafValues></_></weakClassifiers></_>
    <!-- stage 9 -->
    <_>
      <maxWeakCount>2</maxWeakCount>
      <stageThreshold>9.6673712134361267e-02</stageThreshold>
      <weakClassifiers>
        <_>
          <internalNodes>
            0 -1 25 -1.9965122919529676e-03</internalNodes>
          <leafValues>
            9.1666668653488159e-01 -2.8947368264198303e-01</leafValues></_>
        <_>
          <internalNodes>
            0 -1 11 -5.4310970008373260e-02</internalNodes>
          <leafValues>
            -8.1999295949935913e-01 3.9031293988227844e-01</leafValues></_></weakClassifiers></_>
    <!-- stage 10 -->
    <_>
      <maxWeakCount>3</maxWeakCount>
      <stageThreshold>-1.8769864737987518e-01</stageThreshold>
      <weakClassifiers>
        <_>
          <internalNodes>
            0 -1 3 1.1610981076955795e-01</internalNodes>
          <leafValues>
            -3.7313431501388550e-01 7.5757575035095215e-01</leafValues></_>
        <_>
          <internalNodes>
            0 -1 20 3.4585937857627869e-02</internalNodes>
          <leafValues>
            -3.1280985474586487e-01 8.4227496385574341e-01</leafValues></_>
        <_>
          <internalNodes>
            0 -1 18 -1.4271163381636143e-03</internalNodes>
          <leafValues>
            -6.3246452808380127e-01 5.1479065418243408e-01</leafValues></_></weakClassifiers></_>
    <!-- stage 11 -->
    <_>
      <maxWeakCount>4</maxWeakCount>
      <stageThreshold>-3.3215034008026123e-01</stageThreshold>
      <weakClassifiers>
        <_>
          <internalNodes>
            0 -1 35 1.2045836076140404e-02</internalNodes>
          <leafValues>
            -3.4285715222358704e-01 8.0000001192092896e-01</leafValues></_>
        <_>
          <internalNodes>
            0 -1 4 6.5002262592315674e-02</internalNodes>
          <leafValues>
            -3.1216186285018921e-01 8.4108757972717285e-01</leafValues></_>
        <_>
          <internalNodes>
            0 -1 23 4.4006099924445152e-03</internalNodes>
          <leafValues>
            -3.0175700783729553e-01 8.4813433885574341e-01</leafValues></_>
        <_>
          <internalNodes>
            0 -1 38 3.1395023688673973e-03</internalNodes>
          <leafValues>
            -5.0793641805648804e-01 6.2462568283081055e-01</leafValues></_></weakClassifiers></_>
    <!-- stage 12 -->
    <_>
      <maxWeakCount>3</maxWeakCount>
      <stageThreshold>-4.3908089399337769e-02</stageThreshold>
      <weakClassifiers>
        <_>
          <internalNodes>
            0 -1 40 -2.7226358652114868e-03</internalNodes>
          <leafValues>
            8.1250000000000000e-01 -3.8235294818878174e-01</leafValues></_>
        <_>
          <internalNodes>
            0 -1 28 -5.7653733529150486e-04</internalNodes>
          <leafValues>
            8.5621708631515503e-01 -3.6207911372184753e-01</leafValues></_>
        <_>
          <internalNodes>
            0 -1 26 1.6673493664711714e-03</internalNodes>
          <leafValues>
            -4.9432897567749023e-01 7.1022623777389526e-01</leafValues></_></weakClassifiers></_>
    <!-- stage 13 -->
    <_>
      <maxWeakCount>4</maxWeakCount>
      <stageThreshold>-5.7180702686309814e-01</stageThreshold>
      <weakClassifiers>
        <_>
          <internalNodes>
            0 -1 24 -2.7025233954191208e-02</internalNodes>
          <leafValues>
            6.8421053886413574e-01 -4.1935482621192932e-01</leafValues></_>
        <_>
          <internalNodes>
            0 -1 5 -4.4185214210301638e-04</internalNodes>
          <leafValues>
            7.2896033525466919e-01 -4.3777567148208618e-01</leafValues></_>
        <_>
          <internalNodes>
            0 -1 46 -4.8785051330924034e-03</internalNodes>
          <leafValues>
            9.5682895183563232e-01 -3.1653532385826111e-01</leafValues></_>
        <_>
          <internalNodes>
            0 -1 45 -2.2031139815226197e-04</internalNodes>
          <leafValues>
            6.0185879468917847e-01 -5.2938359975814819e-01</leafValues></_></weakClassifiers></_>
    <!-- stage 14 -->
    <_>
      <maxWeakCount>3</maxWeakCount>
      <stageThreshold>-1.1056543886661530e-01</stageThreshold>
      <weakClassifiers>
        <_>
          <internalNodes>
            0 -1 37 -2.7187019586563110e-02</internalNodes>
          <leafValues>
            5.9090906381607056e-01 -4.6428570151329041e-01</leafValues></_>
        <_>
          <internalNodes>
            0 -1 21 -6.3669215887784958e-04</internalNodes>
          <leafValues>
            8.9710628986358643e-01 -3.4023317694664001e-01</leafValues></_>
        <_>
          <internalNodes>
            0 -1 42 5.0562368705868721e-03</internalNodes>
          <leafValues>
            -3.6124134063720703e-01 7.9910862445831299e-01</leafValues></_></weakClassifiers></_></stages>
  <features>
    <_>
      <rects>
        <_>
          0 10 14 6 -1.</_>
        <_>
          7 10 7 6 2.</_></rects>
      <tilted>0</tilted></_>
    <_>
      <rects>
        <_>
          0 13 4 1 -1.</_>
        <_>
          2 13 2 1 2.</_></rects>
      <tilted>0</tilted></_>
    <_>
      <rects>
        <_>
          0 21 12 3 -1.</_>
        <_>
          0 22 12 1 3.</_></rects>
      <tilted>0</tilted></_>
    <_>
      <rects>
        <_>
          1 7 14 13 -1.</_>
        <_>
          8 7 7 13 2.</_></rects>
      <tilted>0</tilted></_>
    <_>
      <rects>
        <_>
          1 16 20 6 -1.</_>
        <_>
          11 16 10 6 2.</_></rects>
      <tilted>0</tilted></_>
    <_>
      <rects>
        <_>
          1 21 6 2 -1.</_>
        <_>
          1 21 3 1 2.</_>
        <_>
          4 22 3 1 2.</_></rects>
      <tilted>0</tilted></_>
    <_>
      <rects>
        <_>
          2 0 4 10 -1.</_>
        <_>
          4 0 2 10 2.</_></rects>
      <tilted>0</tilted></_>
    <_>
      <rects>
        <_>
          2 1 20 9 -1.</_>
        <_>
          2 4 20 3 3.</_></rects>
      <tilted>0</tilted></_>
    <_>
      <rects>
        <_>
          2 17 2 2 -1.</_>
        <_>
          2 17 1 1 2.</_>
        <_>
          3 18 1 1 2.</_></rects>
      <tilted>0</tilted></_>
    <_>
      <rects>
        <_>
          3 22 2 1 -1.</_>
        <_>
          4 22 1 1 2.</_></rects>
      <tilted>0</tilted></_>
    <_>
      <rects>
        <_>
          3 22 15 2 -1.</_>
        <_>
          3 23 15 1 2.</_></rects>
      <tilted>0</tilted></_>
    <_>
      <rects>
        <_>
          4 1 18 9 -1.</_>
        <_>
          10 1 6 9 3.</_></rects>
      <tilted>0</tilted></_>
    <_>
      <rects>
        <_>
          5 22 17 2 -1.</_>
        <_>
          5 23 17 1 2.</_></rects>
      <tilted>0</tilted></_>
    <_>
      <rects>
        <_>
          6 3 12 20 -1.</_>
        <_>
          12 3 6 20 2.</_></rects>
      <tilted>0</tilted></_>
    <_>
      <rects>
        <_>
          6 4 4 3 -1.</_>
        <_>
          6 5 4 1 3.</_></rects>
      <tilted>0</tilted></_>
    <_>
      <rects>
        <_>
          6 5 11 4 -1.</_>
        <_>
          6 7 11 2 2.</_></rects>
      <tilted>0</tilted></_>
    <_>
      <rects>
        <_>
          7 3 17 21 -1.</_>
        <_>
          7 10 17 7 3.</_></rects>
      <tilted>0</tilted></_>
    <_>
      <rects>
        <_>
          7 5 6 8 -1.</_>
        <_>
          7 9 6 4 2.</_></rects>
      <tilted>0</tilted></_>
    <_>
      <rects>
        <_>
          8 18 10 2 -1.</_>
        <_>
          8 18 5 1 2.</_>
        <_>
          13 19 5 1 2.</_></rects>
      <tilted>0</tilted></_>
    <_>
      <rects>
        <_>
          9 2 11 3 -1.</_>
        <_>
          9 3 11 1 3.</_></rects>
      <tilted>0</tilted></_>
    <_>
      <rects>
        <_>
          9 9 12 7 -1.</_>
        <_>
          15 9 6 7 2.</_></rects>
      <tilted>0</tilted></_>
    <_>
      <rects>
        <_>
          9 13 2 2 -1.</_>
        <_>
          9 13 1 1 2.</_>
        <_>
          10 14 1 1 2.</_></rects>
      <tilted>0</tilted></_>
    <_>
      <rects>
        <_>
          10 2 9 3 -1.</_>
        <_>
          10 3 9 1 3.</_></rects>
      <tilted>0</tilted></_>
    <_>
      <rects>
        <_>
          10 7 2 16 -1.</_>
        <_>
          10 7 1 8 2.</_>
        <_>
          11 15 1 8 2.</_></rects>
      <tilted>0</tilted></_>
    <_>
      <rects>
        <_>
          10 9 14 13 -1.</_>
        <_>
          17 9 7 13 2.</_></rects>
      <tilted>0</tilted></_>
    <_>
      <rects>
        <_>
          10 10 4 3 -1.</_>
        <_>
          10 11 4 1 3.</_></rects>
      <tilted>0</tilted></_>
    <_>
      <rects>
        <_>
          11 6 2 8 -1.</_>
        <_>
          12 6 1 8 2.</_></rects>
      <tilted>0</tilted></_>
    <_>
      <rects>
        <_>
          11 14 2 6 -1.</_>
        <_>
          11 16 2 2 3.</_></rects>
      <tilted>0</tilted></_>
    <_>
      <rects>
        <_>
          11 22 3 1 -1.</_>
        <_>
          12 22 1 1 3.</_></rects>
      <tilted>0</tilted></_>
    <_>
      <rects>
        <_>
          12 3 2 15 -1.</_>
        <_>
          13 3 1 15 2.</_></rects>
      <tilted>0</tilted></_>
    <_>
      <rects>
        <_>
          12 22 9 2 -1.</_>
        <_>
          12 23 9 1 2.</_></rects>
      <tilted>0</tilted></_>
    <_>
      <rects>
        <_>
          13 4 3 9 -1.</_>
        <_>
          14 4 1 9 3.</_></rects>
      <tilted>0</tilted></_>
    <_>
      <rects>
        <_>
          13 12 10 3 -1.</_>
        <_>
          13 13 10 1 3.</_></rects>
      <tilted>0</tilted></_>
    <_>
      <rects>
        <_>
          14 6 6 3 -1.</_>
        <_>
          14 7 6 1 3.</_></rects>
      <tilted>0</tilted></_>
    <_>
      <rects>
        <_>
          14 10 5 6 -1.</_>
        <_>
          14 12 5 2 3.</_></rects>
      <tilted>0</tilted></_>
    <_>
      <rects>
        <_>
          15 6 2 8 -1.</_>
        <_>
          15 10 2 4 2.</_></rects>
      <tilted>0</tilted></_>
    <_>
      <rects>
        <_>
          15 8 3 9 -1.</_>
        <_>
          15 11 3 3 3.</_></rects>
      <tilted>0</tilted></_>
    <_>
      <rects>
        <_>
          16 0 8 20 -1.</_>
        <_>
          20 0 4 20 2.</_></rects>
      <tilted>0</tilted></_>
    <_>
      <rects>
        <_>
          16 5 6 8 -1.</_>
        <_>
          18 5 2 8 3.</_></rects>
      <tilted>0</tilted></_>
    <_>
      <rects>
        <_>
          16 12 2 4 -1.</_>
        <_>
          16 12 1 2 2.</_>
        <_>
          17 14 1 2 2.</_></rects>
      <tilted>0</tilted></_>
    <_>
      <rects>
        <_>
          16 17 6 3 -1.</_>
        <_>
          18 17 2 3 3.</_></rects>
      <tilted>0</tilted></_>
    <_>
      <rects>
        <_>
          17 2 2 4 -1.</_>
        <_>
          17 2 1 2 2.</_>
        <_>
          18 4 1 2 2.</_></rects>
      <tilted>0</tilted></_>
    <_>
      <rects>
        <_>
          17 6 2 12 -1.</_>
        <_>
          18 6 1 12 2.</_></rects>
      <tilted>0</tilted></_>
    <_>
      <rects>
        <_>
          18 6 6 3 -1.</_>
        <_>
          18 7 6 1 3.</_></rects>
      <tilted>0</tilted></_>
    <_>
      <rects>
        <_>
          19 8 3 2 -1.</_>
        <_>
          20 8 1 2 3.</_></rects>
      <tilted>0</tilted></_>
    <_>
      <rects>
        <_>
          20 1 3 4 -1.</_>
        <_>
          21 1 1 4 3.</_></rects>
      <tilted>0</tilted></_>
    <_>
      <rects>
        <_>
          21 6 2 11 -1.</_>
        <_>
          22 6 1 11 2.</_></rects>
      <tilted>0</tilted></_>
    <_>
      <rects>
        <_>
          21 9 2 2 -1.</_>
        <_>
          21 9 1 1 2.</_>
        <_>
          22 10 1 1 2.</_></rects>
      <tilted>0</tilted></_>
    <_>
      <rects>
        <_>
          21 15 2 2 -1.</_>
        <_>
          21 15 1 1 2.</_>
        <_>
          22 16 1 1 2.</_></rects>
      <tilted>0</tilted></_></features></cascade>
</opencv_storage>
